digraph Tree {
node [shape=box] ;
0 [label="Pclass <= 0.5\ngini = 0.482\nsamples = 714\nvalue = [424, 290]"] ;
1 [label="Age <= 2.5\ngini = 0.37\nsamples = 261\nvalue = [64, 197]"] ;
0 -> 1 [labeldistance=2.5, labelangle=45, headlabel="True"] ;
2 [label="Sex_n <= 2.5\ngini = 0.107\nsamples = 159\nvalue = [9, 150]"] ;
1 -> 2 ;
3 [label="SibSp <= 88.775\ngini = 0.5\nsamples = 2\nvalue = [1, 1]"] ;
2 -> 3 ;
4 [label="gini = 0.0\nsamples = 1\nvalue = [0, 1]"] ;
3 -> 4 ;
5 [label="gini = 0.0\nsamples = 1\nvalue = [1, 0]"] ;
3 -> 5 ;
6 [label="SibSp <= 28.856\ngini = 0.097\nsamples = 157\nvalue = [8, 149]"] ;
2 -> 6 ;
7 [label="SibSp <= 28.231\ngini = 0.185\nsamples = 68\nvalue = [7, 61]"] ;
6 -> 7 ;
8 [label="Sex_n <= 56.0\ngini = 0.163\nsamples = 67\nvalue = [6, 61]"] ;
7 -> 8 ;
9 [label="Fare <= 0.5\ngini = 0.142\nsamples = 65\nvalue = [5, 60]"] ;
8 -> 9 ;
10 [label="SibSp <= 13.25\ngini = 0.087\nsamples = 44\nvalue = [2, 42]"] ;
9 -> 10 ;
11 [label="SibSp <= 12.825\ngini = 0.153\nsamples = 24\nvalue = [2, 22]"] ;
10 -> 11 ;
12 [label="gini = 0.0\nsamples = 10\nvalue = [0, 10]"] ;
11 -> 12 ;
13 [label="Sex_n <= 26.0\ngini = 0.245\nsamples = 14\nvalue = [2, 12]"] ;
11 -> 13 ;
14 [label="Sex_n <= 21.0\ngini = 0.444\nsamples = 3\nvalue = [1, 2]"] ;
13 -> 14 ;
15 [label="gini = 0.0\nsamples = 1\nvalue = [0, 1]"] ;
14 -> 15 ;
16 [label="gini = 0.5\nsamples = 2\nvalue = [1, 1]"] ;
14 -> 16 ;
17 [label="Sex_n <= 37.0\ngini = 0.165\nsamples = 11\nvalue = [1, 10]"] ;
13 -> 17 ;
18 [label="gini = 0.0\nsamples = 8\nvalue = [0, 8]"] ;
17 -> 18 ;
19 [label="Sex_n <= 39.0\ngini = 0.444\nsamples = 3\nvalue = [1, 2]"] ;
17 -> 19 ;
20 [label="gini = 0.0\nsamples = 1\nvalue = [1, 0]"] ;
19 -> 20 ;
21 [label="gini = 0.0\nsamples = 2\nvalue = [0, 2]"] ;
19 -> 21 ;
22 [label="gini = 0.0\nsamples = 20\nvalue = [0, 20]"] ;
10 -> 22 ;
23 [label="Sex_n <= 25.0\ngini = 0.245\nsamples = 21\nvalue = [3, 18]"] ;
9 -> 23 ;
24 [label="gini = 0.0\nsamples = 6\nvalue = [0, 6]"] ;
23 -> 24 ;
25 [label="Sex_n <= 27.5\ngini = 0.32\nsamples = 15\nvalue = [3, 12]"] ;
23 -> 25 ;
26 [label="SibSp <= 17.429\ngini = 0.444\nsamples = 3\nvalue = [2, 1]"] ;
25 -> 26 ;
27 [label="gini = 0.0\nsamples = 1\nvalue = [0, 1]"] ;
26 -> 27 ;
28 [label="gini = 0.0\nsamples = 2\nvalue = [2, 0]"] ;
26 -> 28 ;
29 [label="Sex_n <= 43.0\ngini = 0.153\nsamples = 12\nvalue = [1, 11]"] ;
25 -> 29 ;
30 [label="gini = 0.0\nsamples = 9\nvalue = [0, 9]"] ;
29 -> 30 ;
31 [label="Sex_n <= 44.5\ngini = 0.444\nsamples = 3\nvalue = [1, 2]"] ;
29 -> 31 ;
32 [label="gini = 0.0\nsamples = 1\nvalue = [1, 0]"] ;
31 -> 32 ;
33 [label="gini = 0.0\nsamples = 2\nvalue = [0, 2]"] ;
31 -> 33 ;
34 [label="Age <= 1.5\ngini = 0.5\nsamples = 2\nvalue = [1, 1]"] ;
8 -> 34 ;
35 [label="gini = 0.0\nsamples = 1\nvalue = [0, 1]"] ;
34 -> 35 ;
36 [label="gini = 0.0\nsamples = 1\nvalue = [1, 0]"] ;
34 -> 36 ;
37 [label="gini = 0.0\nsamples = 1\nvalue = [1, 0]"] ;
7 -> 37 ;
38 [label="SibSp <= 149.035\ngini = 0.022\nsamples = 89\nvalue = [1, 88]"] ;
6 -> 38 ;
39 [label="gini = 0.0\nsamples = 71\nvalue = [0, 71]"] ;
38 -> 39 ;
40 [label="SibSp <= 152.506\ngini = 0.105\nsamples = 18\nvalue = [1, 17]"] ;
38 -> 40 ;
41 [label="Sex_n <= 23.5\ngini = 0.5\nsamples = 2\nvalue = [1, 1]"] ;
40 -> 41 ;
42 [label="gini = 0.0\nsamples = 1\nvalue = [0, 1]"] ;
41 -> 42 ;
43 [label="gini = 0.0\nsamples = 1\nvalue = [1, 0]"] ;
41 -> 43 ;
44 [label="gini = 0.0\nsamples = 16\nvalue = [0, 16]"] ;
40 -> 44 ;
45 [label="SibSp <= 20.8\ngini = 0.497\nsamples = 102\nvalue = [55, 47]"] ;
1 -> 45 ;
46 [label="Sex_n <= 16.5\ngini = 0.494\nsamples = 79\nvalue = [35, 44]"] ;
45 -> 46 ;
47 [label="SibSp <= 15.494\ngini = 0.32\nsamples = 20\nvalue = [4, 16]"] ;
46 -> 47 ;
48 [label="SibSp <= 13.935\ngini = 0.391\nsamples = 15\nvalue = [4, 11]"] ;
47 -> 48 ;
49 [label="SibSp <= 10.798\ngini = 0.278\nsamples = 12\nvalue = [2, 10]"] ;
48 -> 49 ;
50 [label="Sex_n <= 14.5\ngini = 0.408\nsamples = 7\nvalue = [2, 5]"] ;
49 -> 50 ;
51 [label="SibSp <= 7.542\ngini = 0.444\nsamples = 3\nvalue = [2, 1]"] ;
50 -> 51 ;
52 [label="gini = 0.0\nsamples = 1\nvalue = [0, 1]"] ;
51 -> 52 ;
53 [label="gini = 0.0\nsamples = 2\nvalue = [2, 0]"] ;
51 -> 53 ;
54 [label="gini = 0.0\nsamples = 4\nvalue = [0, 4]"] ;
50 -> 54 ;
55 [label="gini = 0.0\nsamples = 5\nvalue = [0, 5]"] ;
49 -> 55 ;
56 [label="Sex_n <= 14.75\ngini = 0.444\nsamples = 3\nvalue = [2, 1]"] ;
48 -> 56 ;
57 [label="gini = 0.0\nsamples = 2\nvalue = [2, 0]"] ;
56 -> 57 ;
58 [label="gini = 0.0\nsamples = 1\nvalue = [0, 1]"] ;
56 -> 58 ;
59 [label="gini = 0.0\nsamples = 5\nvalue = [0, 5]"] ;
47 -> 59 ;
60 [label="Sex_n <= 36.5\ngini = 0.499\nsamples = 59\nvalue = [31, 28]"] ;
46 -> 60 ;
61 [label="Sex_n <= 32.5\ngini = 0.499\nsamples = 52\nvalue = [25, 27]"] ;
60 -> 61 ;
62 [label="Fare <= 0.5\ngini = 0.5\nsamples = 49\nvalue = [25, 24]"] ;
61 -> 62 ;
63 [label="SibSp <= 14.852\ngini = 0.49\nsamples = 35\nvalue = [15, 20]"] ;
62 -> 63 ;
64 [label="SibSp <= 13.465\ngini = 0.498\nsamples = 32\nvalue = [15, 17]"] ;
63 -> 64 ;
65 [label="SibSp <= 10.825\ngini = 0.491\nsamples = 30\nvalue = [13, 17]"] ;
64 -> 65 ;
66 [label="Sex_n <= 27.5\ngini = 0.499\nsamples = 27\nvalue = [13, 14]"] ;
65 -> 66 ;
67 [label="Sex_n <= 25.5\ngini = 0.483\nsamples = 22\nvalue = [9, 13]"] ;
66 -> 67 ;
68 [label="SibSp <= 7.763\ngini = 0.499\nsamples = 19\nvalue = [9, 10]"] ;
67 -> 68 ;
69 [label="SibSp <= 7.0\ngini = 0.375\nsamples = 8\nvalue = [2, 6]"] ;
68 -> 69 ;
70 [label="gini = 0.0\nsamples = 1\nvalue = [1, 0]"] ;
69 -> 70 ;
71 [label="Sex_n <= 21.5\ngini = 0.245\nsamples = 7\nvalue = [1, 6]"] ;
69 -> 71 ;
72 [label="SibSp <= 7.7\ngini = 0.444\nsamples = 3\nvalue = [1, 2]"] ;
71 -> 72 ;
73 [label="gini = 0.0\nsamples = 2\nvalue = [0, 2]"] ;
72 -> 73 ;
74 [label="gini = 0.0\nsamples = 1\nvalue = [1, 0]"] ;
72 -> 74 ;
75 [label="gini = 0.0\nsamples = 4\nvalue = [0, 4]"] ;
71 -> 75 ;
76 [label="Sex_n <= 19.5\ngini = 0.463\nsamples = 11\nvalue = [7, 4]"] ;
68 -> 76 ;
77 [label="SibSp <= 7.827\ngini = 0.375\nsamples = 4\nvalue = [1, 3]"] ;
76 -> 77 ;
78 [label="gini = 0.0\nsamples = 1\nvalue = [1, 0]"] ;
77 -> 78 ;
79 [label="gini = 0.0\nsamples = 3\nvalue = [0, 3]"] ;
77 -> 79 ;
80 [label="SibSp <= 7.85\ngini = 0.245\nsamples = 7\nvalue = [6, 1]"] ;
76 -> 80 ;
81 [label="Sex_n <= 23.5\ngini = 0.5\nsamples = 2\nvalue = [1, 1]"] ;
80 -> 81 ;
82 [label="gini = 0.0\nsamples = 1\nvalue = [0, 1]"] ;
81 -> 82 ;
83 [label="gini = 0.0\nsamples = 1\nvalue = [1, 0]"] ;
81 -> 83 ;
84 [label="gini = 0.0\nsamples = 5\nvalue = [5, 0]"] ;
80 -> 84 ;
85 [label="gini = 0.0\nsamples = 3\nvalue = [0, 3]"] ;
67 -> 85 ;
86 [label="SibSp <= 8.673\ngini = 0.32\nsamples = 5\nvalue = [4, 1]"] ;
66 -> 86 ;
87 [label="gini = 0.0\nsamples = 4\nvalue = [4, 0]"] ;
86 -> 87 ;
88 [label="gini = 0.0\nsamples = 1\nvalue = [0, 1]"] ;
86 -> 88 ;
89 [label="gini = 0.0\nsamples = 3\nvalue = [0, 3]"] ;
65 -> 89 ;
90 [label="gini = 0.0\nsamples = 2\nvalue = [2, 0]"] ;
64 -> 90 ;
91 [label="gini = 0.0\nsamples = 3\nvalue = [0, 3]"] ;
63 -> 91 ;
92 [label="SibSp <= 8.875\ngini = 0.408\nsamples = 14\nvalue = [10, 4]"] ;
62 -> 92 ;
93 [label="Sex_n <= 22.0\ngini = 0.444\nsamples = 3\nvalue = [1, 2]"] ;
92 -> 93 ;
94 [label="gini = 0.0\nsamples = 2\nvalue = [0, 2]"] ;
93 -> 94 ;
95 [label="gini = 0.0\nsamples = 1\nvalue = [1, 0]"] ;
93 -> 95 ;
96 [label="SibSp <= 19.262\ngini = 0.298\nsamples = 11\nvalue = [9, 2]"] ;
92 -> 96 ;
97 [label="SibSp <= 15.675\ngini = 0.18\nsamples = 10\nvalue = [9, 1]"] ;
96 -> 97 ;
98 [label="gini = 0.0\nsamples = 5\nvalue = [5, 0]"] ;
97 -> 98 ;
99 [label="SibSp <= 15.975\ngini = 0.32\nsamples = 5\nvalue = [4, 1]"] ;
97 -> 99 ;
100 [label="gini = 0.0\nsamples = 1\nvalue = [0, 1]"] ;
99 -> 100 ;
101 [label="gini = 0.0\nsamples = 4\nvalue = [4, 0]"] ;
99 -> 101 ;
102 [label="gini = 0.0\nsamples = 1\nvalue = [0, 1]"] ;
96 -> 102 ;
103 [label="gini = 0.0\nsamples = 3\nvalue = [0, 3]"] ;
61 -> 103 ;
104 [label="Sex_n <= 55.0\ngini = 0.245\nsamples = 7\nvalue = [6, 1]"] ;
60 -> 104 ;
105 [label="gini = 0.0\nsamples = 6\nvalue = [6, 0]"] ;
104 -> 105 ;
106 [label="gini = 0.0\nsamples = 1\nvalue = [0, 1]"] ;
104 -> 106 ;
107 [label="Sex_n <= 5.5\ngini = 0.227\nsamples = 23\nvalue = [20, 3]"] ;
45 -> 107 ;
108 [label="Sex_n <= 3.5\ngini = 0.48\nsamples = 5\nvalue = [3, 2]"] ;
107 -> 108 ;
109 [label="gini = 0.0\nsamples = 3\nvalue = [3, 0]"] ;
108 -> 109 ;
110 [label="gini = 0.0\nsamples = 2\nvalue = [0, 2]"] ;
108 -> 110 ;
111 [label="SibSp <= 31.331\ngini = 0.105\nsamples = 18\nvalue = [17, 1]"] ;
107 -> 111 ;
112 [label="gini = 0.0\nsamples = 11\nvalue = [11, 0]"] ;
111 -> 112 ;
113 [label="SibSp <= 32.881\ngini = 0.245\nsamples = 7\nvalue = [6, 1]"] ;
111 -> 113 ;
114 [label="gini = 0.0\nsamples = 1\nvalue = [0, 1]"] ;
113 -> 114 ;
115 [label="gini = 0.0\nsamples = 6\nvalue = [6, 0]"] ;
113 -> 115 ;
116 [label="Sex_n <= 6.5\ngini = 0.326\nsamples = 453\nvalue = [360, 93]"] ;
0 -> 116 [labeldistance=2.5, labelangle=-45, headlabel="False"] ;
117 [label="Fare <= 2.5\ngini = 0.444\nsamples = 24\nvalue = [8, 16]"] ;
116 -> 117 ;
118 [label="gini = 0.0\nsamples = 15\nvalue = [0, 15]"] ;
117 -> 118 ;
119 [label="Sex_n <= 2.5\ngini = 0.198\nsamples = 9\nvalue = [8, 1]"] ;
117 -> 119 ;
120 [label="gini = 0.0\nsamples = 5\nvalue = [5, 0]"] ;
119 -> 120 ;
121 [label="Sex_n <= 3.5\ngini = 0.375\nsamples = 4\nvalue = [3, 1]"] ;
119 -> 121 ;
122 [label="gini = 0.0\nsamples = 1\nvalue = [0, 1]"] ;
121 -> 122 ;
123 [label="gini = 0.0\nsamples = 3\nvalue = [3, 0]"] ;
121 -> 123 ;
124 [label="Age <= 1.5\ngini = 0.295\nsamples = 429\nvalue = [352, 77]"] ;
116 -> 124 ;
125 [label="Sex_n <= 53.0\ngini = 0.473\nsamples = 99\nvalue = [61, 38]"] ;
124 -> 125 ;
126 [label="SibSp <= 25.938\ngini = 0.496\nsamples = 77\nvalue = [42, 35]"] ;
125 -> 126 ;
127 [label="gini = 0.0\nsamples = 5\nvalue = [5, 0]"] ;
126 -> 127 ;
128 [label="SibSp <= 27.135\ngini = 0.5\nsamples = 72\nvalue = [37, 35]"] ;
126 -> 128 ;
129 [label="Sex_n <= 43.5\ngini = 0.165\nsamples = 11\nvalue = [1, 10]"] ;
128 -> 129 ;
130 [label="gini = 0.0\nsamples = 7\nvalue = [0, 7]"] ;
129 -> 130 ;
131 [label="Sex_n <= 46.5\ngini = 0.375\nsamples = 4\nvalue = [1, 3]"] ;
129 -> 131 ;
132 [label="gini = 0.5\nsamples = 2\nvalue = [1, 1]"] ;
131 -> 132 ;
133 [label="gini = 0.0\nsamples = 2\nvalue = [0, 2]"] ;
131 -> 133 ;
134 [label="Sex_n <= 17.5\ngini = 0.484\nsamples = 61\nvalue = [36, 25]"] ;
128 -> 134 ;
135 [label="gini = 0.0\nsamples = 2\nvalue = [0, 2]"] ;
134 -> 135 ;
136 [label="Sex_n <= 22.5\ngini = 0.476\nsamples = 59\nvalue = [36, 23]"] ;
134 -> 136 ;
137 [label="gini = 0.0\nsamples = 5\nvalue = [5, 0]"] ;
136 -> 137 ;
138 [label="Sex_n <= 27.5\ngini = 0.489\nsamples = 54\nvalue = [31, 23]"] ;
136 -> 138 ;
139 [label="SibSp <= 77.965\ngini = 0.42\nsamples = 10\nvalue = [3, 7]"] ;
138 -> 139 ;
140 [label="gini = 0.0\nsamples = 6\nvalue = [0, 6]"] ;
139 -> 140 ;
141 [label="Fare <= 0.5\ngini = 0.375\nsamples = 4\nvalue = [3, 1]"] ;
139 -> 141 ;
142 [label="gini = 0.0\nsamples = 3\nvalue = [3, 0]"] ;
141 -> 142 ;
143 [label="gini = 0.0\nsamples = 1\nvalue = [0, 1]"] ;
141 -> 143 ;
144 [label="SibSp <= 115.442\ngini = 0.463\nsamples = 44\nvalue = [28, 16]"] ;
138 -> 144 ;
145 [label="SibSp <= 30.25\ngini = 0.426\nsamples = 39\nvalue = [27, 12]"] ;
144 -> 145 ;
146 [label="gini = 0.0\nsamples = 5\nvalue = [5, 0]"] ;
145 -> 146 ;
147 [label="SibSp <= 32.51\ngini = 0.457\nsamples = 34\nvalue = [22, 12]"] ;
145 -> 147 ;
148 [label="gini = 0.0\nsamples = 3\nvalue = [0, 3]"] ;
147 -> 148 ;
149 [label="Fare <= 0.5\ngini = 0.412\nsamples = 31\nvalue = [22, 9]"] ;
147 -> 149 ;
150 [label="Sex_n <= 29.5\ngini = 0.18\nsamples = 10\nvalue = [9, 1]"] ;
149 -> 150 ;
151 [label="SibSp <= 41.3\ngini = 0.5\nsamples = 2\nvalue = [1, 1]"] ;
150 -> 151 ;
152 [label="gini = 0.0\nsamples = 1\nvalue = [0, 1]"] ;
151 -> 152 ;
153 [label="gini = 0.0\nsamples = 1\nvalue = [1, 0]"] ;
151 -> 153 ;
154 [label="gini = 0.0\nsamples = 8\nvalue = [8, 0]"] ;
150 -> 154 ;
155 [label="Sex_n <= 49.5\ngini = 0.472\nsamples = 21\nvalue = [13, 8]"] ;
149 -> 155 ;
156 [label="Sex_n <= 47.0\ngini = 0.494\nsamples = 18\nvalue = [10, 8]"] ;
155 -> 156 ;
157 [label="SibSp <= 59.087\ngini = 0.426\nsamples = 13\nvalue = [9, 4]"] ;
156 -> 157 ;
158 [label="SibSp <= 52.277\ngini = 0.5\nsamples = 6\nvalue = [3, 3]"] ;
157 -> 158 ;
159 [label="gini = 0.0\nsamples = 2\nvalue = [2, 0]"] ;
158 -> 159 ;
160 [label="SibSp <= 52.827\ngini = 0.375\nsamples = 4\nvalue = [1, 3]"] ;
158 -> 160 ;
161 [label="gini = 0.0\nsamples = 2\nvalue = [0, 2]"] ;
160 -> 161 ;
162 [label="Sex_n <= 34.0\ngini = 0.5\nsamples = 2\nvalue = [1, 1]"] ;
160 -> 162 ;
163 [label="gini = 0.0\nsamples = 1\nvalue = [0, 1]"] ;
162 -> 163 ;
164 [label="gini = 0.0\nsamples = 1\nvalue = [1, 0]"] ;
162 -> 164 ;
165 [label="SibSp <= 86.737\ngini = 0.245\nsamples = 7\nvalue = [6, 1]"] ;
157 -> 165 ;
166 [label="gini = 0.0\nsamples = 5\nvalue = [5, 0]"] ;
165 -> 166 ;
167 [label="Sex_n <= 41.0\ngini = 0.5\nsamples = 2\nvalue = [1, 1]"] ;
165 -> 167 ;
168 [label="gini = 0.0\nsamples = 1\nvalue = [0, 1]"] ;
167 -> 168 ;
169 [label="gini = 0.0\nsamples = 1\nvalue = [1, 0]"] ;
167 -> 169 ;
170 [label="SibSp <= 99.994\ngini = 0.32\nsamples = 5\nvalue = [1, 4]"] ;
156 -> 170 ;
171 [label="gini = 0.0\nsamples = 4\nvalue = [0, 4]"] ;
170 -> 171 ;
172 [label="gini = 0.0\nsamples = 1\nvalue = [1, 0]"] ;
170 -> 172 ;
173 [label="gini = 0.0\nsamples = 3\nvalue = [3, 0]"] ;
155 -> 173 ;
174 [label="Sex_n <= 37.0\ngini = 0.32\nsamples = 5\nvalue = [1, 4]"] ;
144 -> 174 ;
175 [label="gini = 0.0\nsamples = 3\nvalue = [0, 3]"] ;
174 -> 175 ;
176 [label="Sex_n <= 44.0\ngini = 0.5\nsamples = 2\nvalue = [1, 1]"] ;
174 -> 176 ;
177 [label="gini = 0.0\nsamples = 1\nvalue = [1, 0]"] ;
176 -> 177 ;
178 [label="gini = 0.0\nsamples = 1\nvalue = [0, 1]"] ;
176 -> 178 ;
179 [label="Sex_n <= 75.5\ngini = 0.236\nsamples = 22\nvalue = [19, 3]"] ;
125 -> 179 ;
180 [label="SibSp <= 35.077\ngini = 0.172\nsamples = 21\nvalue = [19, 2]"] ;
179 -> 180 ;
181 [label="gini = 0.0\nsamples = 12\nvalue = [12, 0]"] ;
180 -> 181 ;
182 [label="SibSp <= 42.502\ngini = 0.346\nsamples = 9\nvalue = [7, 2]"] ;
180 -> 182 ;
183 [label="gini = 0.0\nsamples = 1\nvalue = [0, 1]"] ;
182 -> 183 ;
184 [label="Fare <= 0.5\ngini = 0.219\nsamples = 8\nvalue = [7, 1]"] ;
182 -> 184 ;
185 [label="gini = 0.0\nsamples = 5\nvalue = [5, 0]"] ;
184 -> 185 ;
186 [label="Sex_n <= 62.0\ngini = 0.444\nsamples = 3\nvalue = [2, 1]"] ;
184 -> 186 ;
187 [label="gini = 0.0\nsamples = 1\nvalue = [0, 1]"] ;
186 -> 187 ;
188 [label="gini = 0.0\nsamples = 2\nvalue = [2, 0]"] ;
186 -> 188 ;
189 [label="gini = 0.0\nsamples = 1\nvalue = [0, 1]"] ;
179 -> 189 ;
190 [label="Sex_n <= 13.0\ngini = 0.208\nsamples = 330\nvalue = [291, 39]"] ;
124 -> 190 ;
191 [label="Fare <= 2.0\ngini = 0.444\nsamples = 12\nvalue = [8, 4]"] ;
190 -> 191 ;
192 [label="Sex_n <= 10.0\ngini = 0.32\nsamples = 5\nvalue = [1, 4]"] ;
191 -> 192 ;
193 [label="gini = 0.0\nsamples = 3\nvalue = [0, 3]"] ;
192 -> 193 ;
194 [label="Fare <= 0.5\ngini = 0.5\nsamples = 2\nvalue = [1, 1]"] ;
192 -> 194 ;
195 [label="gini = 0.0\nsamples = 1\nvalue = [1, 0]"] ;
194 -> 195 ;
196 [label="gini = 0.0\nsamples = 1\nvalue = [0, 1]"] ;
194 -> 196 ;
197 [label="gini = 0.0\nsamples = 7\nvalue = [7, 0]"] ;
191 -> 197 ;
198 [label="SibSp <= 51.698\ngini = 0.196\nsamples = 318\nvalue = [283, 35]"] ;
190 -> 198 ;
199 [label="Sex_n <= 32.25\ngini = 0.186\nsamples = 309\nvalue = [277, 32]"] ;
198 -> 199 ;
200 [label="Sex_n <= 30.75\ngini = 0.222\nsamples = 204\nvalue = [178, 26]"] ;
199 -> 200 ;
201 [label="Age <= 2.5\ngini = 0.192\nsamples = 186\nvalue = [166, 20]"] ;
200 -> 201 ;
202 [label="Sex_n <= 20.0\ngini = 0.05\nsamples = 39\nvalue = [38, 1]"] ;
201 -> 202 ;
203 [label="SibSp <= 11.0\ngini = 0.198\nsamples = 9\nvalue = [8, 1]"] ;
202 -> 203 ;
204 [label="Sex_n <= 17.5\ngini = 0.444\nsamples = 3\nvalue = [2, 1]"] ;
203 -> 204 ;
205 [label="gini = 0.0\nsamples = 1\nvalue = [1, 0]"] ;
204 -> 205 ;
206 [label="gini = 0.5\nsamples = 2\nvalue = [1, 1]"] ;
204 -> 206 ;
207 [label="gini = 0.0\nsamples = 6\nvalue = [6, 0]"] ;
203 -> 207 ;
208 [label="gini = 0.0\nsamples = 30\nvalue = [30, 0]"] ;
202 -> 208 ;
209 [label="Sex_n <= 26.5\ngini = 0.225\nsamples = 147\nvalue = [128, 19]"] ;
201 -> 209 ;
210 [label="SibSp <= 2.006\ngini = 0.188\nsamples = 114\nvalue = [102, 12]"] ;
209 -> 210 ;
211 [label="Sex_n <= 22.0\ngini = 0.5\nsamples = 2\nvalue = [1, 1]"] ;
210 -> 211 ;
212 [label="gini = 0.0\nsamples = 1\nvalue = [1, 0]"] ;
211 -> 212 ;
213 [label="gini = 0.0\nsamples = 1\nvalue = [0, 1]"] ;
211 -> 213 ;
214 [label="SibSp <= 7.133\ngini = 0.177\nsamples = 112\nvalue = [101, 11]"] ;
210 -> 214 ;
215 [label="gini = 0.0\nsamples = 10\nvalue = [10, 0]"] ;
214 -> 215 ;
216 [label="SibSp <= 7.227\ngini = 0.192\nsamples = 102\nvalue = [91, 11]"] ;
214 -> 216 ;
217 [label="Sex_n <= 24.5\ngini = 0.444\nsamples = 3\nvalue = [1, 2]"] ;
216 -> 217 ;
218 [label="gini = 0.0\nsamples = 2\nvalue = [0, 2]"] ;
217 -> 218 ;
219 [label="gini = 0.0\nsamples = 1\nvalue = [1, 0]"] ;
217 -> 219 ;
220 [label="Sex_n <= 20.25\ngini = 0.165\nsamples = 99\nvalue = [90, 9]"] ;
216 -> 220 ;
221 [label="SibSp <= 8.104\ngini = 0.236\nsamples = 44\nvalue = [38, 6]"] ;
220 -> 221 ;
222 [label="SibSp <= 7.91\ngini = 0.34\nsamples = 23\nvalue = [18, 5]"] ;
221 -> 222 ;
223 [label="Sex_n <= 19.5\ngini = 0.124\nsamples = 15\nvalue = [14, 1]"] ;
222 -> 223 ;
224 [label="gini = 0.0\nsamples = 12\nvalue = [12, 0]"] ;
223 -> 224 ;
225 [label="SibSp <= 7.542\ngini = 0.444\nsamples = 3\nvalue = [2, 1]"] ;
223 -> 225 ;
226 [label="gini = 0.0\nsamples = 1\nvalue = [0, 1]"] ;
225 -> 226 ;
227 [label="gini = 0.0\nsamples = 2\nvalue = [2, 0]"] ;
225 -> 227 ;
228 [label="Fare <= 0.5\ngini = 0.5\nsamples = 8\nvalue = [4, 4]"] ;
222 -> 228 ;
229 [label="Sex_n <= 19.5\ngini = 0.49\nsamples = 7\nvalue = [4, 3]"] ;
228 -> 229 ;
230 [label="Sex_n <= 17.0\ngini = 0.48\nsamples = 5\nvalue = [2, 3]"] ;
229 -> 230 ;
231 [label="gini = 0.5\nsamples = 2\nvalue = [1, 1]"] ;
230 -> 231 ;
232 [label="Sex_n <= 18.5\ngini = 0.444\nsamples = 3\nvalue = [1, 2]"] ;
230 -> 232 ;
233 [label="gini = 0.0\nsamples = 1\nvalue = [0, 1]"] ;
232 -> 233 ;
234 [label="gini = 0.5\nsamples = 2\nvalue = [1, 1]"] ;
232 -> 234 ;
235 [label="gini = 0.0\nsamples = 2\nvalue = [2, 0]"] ;
229 -> 235 ;
236 [label="gini = 0.0\nsamples = 1\nvalue = [0, 1]"] ;
228 -> 236 ;
237 [label="Sex_n <= 19.5\ngini = 0.091\nsamples = 21\nvalue = [20, 1]"] ;
221 -> 237 ;
238 [label="gini = 0.0\nsamples = 16\nvalue = [16, 0]"] ;
237 -> 238 ;
239 [label="Fare <= 0.5\ngini = 0.32\nsamples = 5\nvalue = [4, 1]"] ;
237 -> 239 ;
240 [label="gini = 0.0\nsamples = 4\nvalue = [4, 0]"] ;
239 -> 240 ;
241 [label="gini = 0.0\nsamples = 1\nvalue = [0, 1]"] ;
239 -> 241 ;
242 [label="SibSp <= 18.294\ngini = 0.103\nsamples = 55\nvalue = [52, 3]"] ;
220 -> 242 ;
243 [label="SibSp <= 7.798\ngini = 0.074\nsamples = 52\nvalue = [50, 2]"] ;
242 -> 243 ;
244 [label="SibSp <= 7.758\ngini = 0.18\nsamples = 20\nvalue = [18, 2]"] ;
243 -> 244 ;
245 [label="gini = 0.0\nsamples = 13\nvalue = [13, 0]"] ;
244 -> 245 ;
246 [label="Fare <= 0.5\ngini = 0.408\nsamples = 7\nvalue = [5, 2]"] ;
244 -> 246 ;
247 [label="Sex_n <= 21.5\ngini = 0.32\nsamples = 5\nvalue = [4, 1]"] ;
246 -> 247 ;
248 [label="SibSp <= 7.785\ngini = 0.5\nsamples = 2\nvalue = [1, 1]"] ;
247 -> 248 ;
249 [label="gini = 0.0\nsamples = 1\nvalue = [1, 0]"] ;
248 -> 249 ;
250 [label="gini = 0.0\nsamples = 1\nvalue = [0, 1]"] ;
248 -> 250 ;
251 [label="gini = 0.0\nsamples = 3\nvalue = [3, 0]"] ;
247 -> 251 ;
252 [label="gini = 0.5\nsamples = 2\nvalue = [1, 1]"] ;
246 -> 252 ;
253 [label="gini = 0.0\nsamples = 32\nvalue = [32, 0]"] ;
243 -> 253 ;
254 [label="SibSp <= 19.681\ngini = 0.444\nsamples = 3\nvalue = [2, 1]"] ;
242 -> 254 ;
255 [label="gini = 0.0\nsamples = 1\nvalue = [0, 1]"] ;
254 -> 255 ;
256 [label="gini = 0.0\nsamples = 2\nvalue = [2, 0]"] ;
254 -> 256 ;
257 [label="Sex_n <= 27.5\ngini = 0.334\nsamples = 33\nvalue = [26, 7]"] ;
209 -> 257 ;
258 [label="SibSp <= 7.846\ngini = 0.48\nsamples = 5\nvalue = [2, 3]"] ;
257 -> 258 ;
259 [label="gini = 0.0\nsamples = 2\nvalue = [0, 2]"] ;
258 -> 259 ;
260 [label="SibSp <= 8.279\ngini = 0.444\nsamples = 3\nvalue = [2, 1]"] ;
258 -> 260 ;
261 [label="gini = 0.0\nsamples = 1\nvalue = [1, 0]"] ;
260 -> 261 ;
262 [label="Fare <= 0.5\ngini = 0.5\nsamples = 2\nvalue = [1, 1]"] ;
260 -> 262 ;
263 [label="gini = 0.0\nsamples = 1\nvalue = [0, 1]"] ;
262 -> 263 ;
264 [label="gini = 0.0\nsamples = 1\nvalue = [1, 0]"] ;
262 -> 264 ;
265 [label="Sex_n <= 28.75\ngini = 0.245\nsamples = 28\nvalue = [24, 4]"] ;
257 -> 265 ;
266 [label="gini = 0.0\nsamples = 11\nvalue = [11, 0]"] ;
265 -> 266 ;
267 [label="SibSp <= 9.492\ngini = 0.36\nsamples = 17\nvalue = [13, 4]"] ;
265 -> 267 ;
268 [label="Sex_n <= 29.5\ngini = 0.245\nsamples = 14\nvalue = [12, 2]"] ;
267 -> 268 ;
269 [label="SibSp <= 7.973\ngini = 0.408\nsamples = 7\nvalue = [5, 2]"] ;
268 -> 269 ;
270 [label="SibSp <= 7.885\ngini = 0.48\nsamples = 5\nvalue = [3, 2]"] ;
269 -> 270 ;
271 [label="SibSp <= 7.763\ngini = 0.375\nsamples = 4\nvalue = [3, 1]"] ;
270 -> 271 ;
272 [label="Fare <= 0.5\ngini = 0.5\nsamples = 2\nvalue = [1, 1]"] ;
271 -> 272 ;
273 [label="gini = 0.0\nsamples = 1\nvalue = [0, 1]"] ;
272 -> 273 ;
274 [label="gini = 0.0\nsamples = 1\nvalue = [1, 0]"] ;
272 -> 274 ;
275 [label="gini = 0.0\nsamples = 2\nvalue = [2, 0]"] ;
271 -> 275 ;
276 [label="gini = 0.0\nsamples = 1\nvalue = [0, 1]"] ;
270 -> 276 ;
277 [label="gini = 0.0\nsamples = 2\nvalue = [2, 0]"] ;
269 -> 277 ;
278 [label="gini = 0.0\nsamples = 7\nvalue = [7, 0]"] ;
268 -> 278 ;
279 [label="SibSp <= 12.8\ngini = 0.444\nsamples = 3\nvalue = [1, 2]"] ;
267 -> 279 ;
280 [label="gini = 0.0\nsamples = 2\nvalue = [0, 2]"] ;
279 -> 280 ;
281 [label="gini = 0.0\nsamples = 1\nvalue = [1, 0]"] ;
279 -> 281 ;
282 [label="SibSp <= 7.815\ngini = 0.444\nsamples = 18\nvalue = [12, 6]"] ;
200 -> 282 ;
283 [label="gini = 0.0\nsamples = 3\nvalue = [3, 0]"] ;
282 -> 283 ;
284 [label="SibSp <= 7.875\ngini = 0.48\nsamples = 15\nvalue = [9, 6]"] ;
282 -> 284 ;
285 [label="gini = 0.0\nsamples = 1\nvalue = [0, 1]"] ;
284 -> 285 ;
286 [label="SibSp <= 26.125\ngini = 0.459\nsamples = 14\nvalue = [9, 5]"] ;
284 -> 286 ;
287 [label="SibSp <= 20.925\ngini = 0.486\nsamples = 12\nvalue = [7, 5]"] ;
286 -> 287 ;
288 [label="Sex_n <= 31.5\ngini = 0.463\nsamples = 11\nvalue = [7, 4]"] ;
287 -> 288 ;
289 [label="SibSp <= 9.213\ngini = 0.444\nsamples = 3\nvalue = [1, 2]"] ;
288 -> 289 ;
290 [label="gini = 0.0\nsamples = 1\nvalue = [0, 1]"] ;
289 -> 290 ;
291 [label="SibSp <= 11.75\ngini = 0.5\nsamples = 2\nvalue = [1, 1]"] ;
289 -> 291 ;
292 [label="gini = 0.0\nsamples = 1\nvalue = [1, 0]"] ;
291 -> 292 ;
293 [label="gini = 0.0\nsamples = 1\nvalue = [0, 1]"] ;
291 -> 293 ;
294 [label="SibSp <= 8.206\ngini = 0.375\nsamples = 8\nvalue = [6, 2]"] ;
288 -> 294 ;
295 [label="SibSp <= 7.988\ngini = 0.48\nsamples = 5\nvalue = [3, 2]"] ;
294 -> 295 ;
296 [label="SibSp <= 7.91\ngini = 0.375\nsamples = 4\nvalue = [3, 1]"] ;
295 -> 296 ;
297 [label="gini = 0.0\nsamples = 1\nvalue = [1, 0]"] ;
296 -> 297 ;
298 [label="gini = 0.444\nsamples = 3\nvalue = [2, 1]"] ;
296 -> 298 ;
299 [label="gini = 0.0\nsamples = 1\nvalue = [0, 1]"] ;
295 -> 299 ;
300 [label="gini = 0.0\nsamples = 3\nvalue = [3, 0]"] ;
294 -> 300 ;
301 [label="gini = 0.0\nsamples = 1\nvalue = [0, 1]"] ;
287 -> 301 ;
302 [label="gini = 0.0\nsamples = 2\nvalue = [2, 0]"] ;
286 -> 302 ;
303 [label="SibSp <= 7.91\ngini = 0.108\nsamples = 105\nvalue = [99, 6]"] ;
199 -> 303 ;
304 [label="gini = 0.0\nsamples = 32\nvalue = [32, 0]"] ;
303 -> 304 ;
305 [label="SibSp <= 7.988\ngini = 0.151\nsamples = 73\nvalue = [67, 6]"] ;
303 -> 305 ;
306 [label="Fare <= 1.0\ngini = 0.5\nsamples = 4\nvalue = [2, 2]"] ;
305 -> 306 ;
307 [label="Sex_n <= 41.5\ngini = 0.444\nsamples = 3\nvalue = [1, 2]"] ;
306 -> 307 ;
308 [label="gini = 0.5\nsamples = 2\nvalue = [1, 1]"] ;
307 -> 308 ;
309 [label="gini = 0.0\nsamples = 1\nvalue = [0, 1]"] ;
307 -> 309 ;
310 [label="gini = 0.0\nsamples = 1\nvalue = [1, 0]"] ;
306 -> 310 ;
311 [label="Sex_n <= 61.0\ngini = 0.109\nsamples = 69\nvalue = [65, 4]"] ;
305 -> 311 ;
312 [label="SibSp <= 13.25\ngini = 0.087\nsamples = 66\nvalue = [63, 3]"] ;
311 -> 312 ;
313 [label="SibSp <= 12.938\ngini = 0.157\nsamples = 35\nvalue = [32, 3]"] ;
312 -> 313 ;
314 [label="Sex_n <= 44.5\ngini = 0.08\nsamples = 24\nvalue = [23, 1]"] ;
313 -> 314 ;
315 [label="gini = 0.0\nsamples = 17\nvalue = [17, 0]"] ;
314 -> 315 ;
316 [label="Sex_n <= 46.0\ngini = 0.245\nsamples = 7\nvalue = [6, 1]"] ;
314 -> 316 ;
317 [label="gini = 0.0\nsamples = 1\nvalue = [0, 1]"] ;
316 -> 317 ;
318 [label="gini = 0.0\nsamples = 6\nvalue = [6, 0]"] ;
316 -> 318 ;
319 [label="Sex_n <= 45.0\ngini = 0.298\nsamples = 11\nvalue = [9, 2]"] ;
313 -> 319 ;
320 [label="Sex_n <= 40.5\ngini = 0.375\nsamples = 8\nvalue = [6, 2]"] ;
319 -> 320 ;
321 [label="Sex_n <= 35.0\ngini = 0.278\nsamples = 6\nvalue = [5, 1]"] ;
320 -> 321 ;
322 [label="gini = 0.444\nsamples = 3\nvalue = [2, 1]"] ;
321 -> 322 ;
323 [label="gini = 0.0\nsamples = 3\nvalue = [3, 0]"] ;
321 -> 323 ;
324 [label="gini = 0.5\nsamples = 2\nvalue = [1, 1]"] ;
320 -> 324 ;
325 [label="gini = 0.0\nsamples = 3\nvalue = [3, 0]"] ;
319 -> 325 ;
326 [label="gini = 0.0\nsamples = 31\nvalue = [31, 0]"] ;
312 -> 326 ;
327 [label="Sex_n <= 64.0\ngini = 0.444\nsamples = 3\nvalue = [2, 1]"] ;
311 -> 327 ;
328 [label="gini = 0.0\nsamples = 1\nvalue = [0, 1]"] ;
327 -> 328 ;
329 [label="gini = 0.0\nsamples = 2\nvalue = [2, 0]"] ;
327 -> 329 ;
330 [label="SibSp <= 64.998\ngini = 0.444\nsamples = 9\nvalue = [6, 3]"] ;
198 -> 330 ;
331 [label="Sex_n <= 30.0\ngini = 0.375\nsamples = 4\nvalue = [1, 3]"] ;
330 -> 331 ;
332 [label="Sex_n <= 27.0\ngini = 0.5\nsamples = 2\nvalue = [1, 1]"] ;
331 -> 332 ;
333 [label="gini = 0.0\nsamples = 1\nvalue = [0, 1]"] ;
332 -> 333 ;
334 [label="gini = 0.0\nsamples = 1\nvalue = [1, 0]"] ;
332 -> 334 ;
335 [label="gini = 0.0\nsamples = 2\nvalue = [0, 2]"] ;
331 -> 335 ;
336 [label="gini = 0.0\nsamples = 5\nvalue = [5, 0]"] ;
330 -> 336 ;
}